{
  "fc1.weight": [
    [
      -0.42193615436553955, 0.25073644518852234, 0.2929729223251343,
      0.28596124053001404
    ],
    [
      0.03977619484066963, -0.07332313805818558, 0.25682687759399414,
      -0.04827994853258133
    ],
    [
      -0.12139463424682617, -0.2051745057106018, 0.1859368085861206,
      -0.3298456072807312
    ],
    [
      0.27889376878738403, 0.43634843826293945, -0.2971510589122772,
      -0.40164676308631897
    ]
  ],
  "fc1.bias": [
    -0.036505818367004395, 0.18637236952781677, 0.2609930634498596,
    -0.17318522930145264
  ],
  "fc2.weight": [
    [
      -0.3961031138896942, 0.20642052590847015, 0.08852142095565796,
      -0.2246706783771515
    ],
    [
      -0.43362218141555786, 0.4918367564678192, 0.26155298948287964,
      -0.43431058526039124
    ],
    [
      0.2768698036670685, 0.07969928532838821, 0.235568106174469,
      -0.35918867588043213
    ]
  ],
  "fc2.bias": [-0.08349685370922089, 0.17632707953453064, 0.019512832164764404],
  "fc3.weight": [
    [0.20790067315101624, -0.45866554975509644, 0.41145312786102295],
    [-0.5148170590400696, -0.466238796710968, 0.46852609515190125],
    [-0.314810186624527, 0.1285620629787445, -0.4079086482524872]
  ],
  "fc3.bias": [0.5378158688545227, 0.5712593197822571, -0.4436081051826477]
}
